-0.00284806 0.040163 -0.00989097 0.0137185 0.00203319 -0.01647 0.00289554 0.00407463 -0.0143038 0.0136136 0.00214991 -0.0154585 -0.0125568 0.0113454 0.00767014 0.0174694 -0.00149319 0.00683338 -0.00671383 -0.0128709 -0.00850726 -0.000718042 0.00265486 0.00812147 0.00509987 0.00270273 0.00487018 0.00689502 0.00865864 0.00283291 -0.0131693 0.00111979 0.00941608 -0.00867701 0.0091 0.00781312 -0.000663385 0.015223 -0.00699178 -0.00410397 -0.00103703 0.0064255 0.00302384 0.00351042 0.0196032 -0.0149707 -0.0115604 0.00842227 -0.0042483 0.0012326 0.00703859 0.00568597 0.0129255 6.30033e-05 -0.00748295 -0.0118583 0.0103854 -0.00907693 -0.0133659 0.00654171 0.00777166 0.0167398 0.000541109 -0.00927305 0.00250346 -0.0138634 -0.00643933 -0.00676851 0.00413761 -0.00144517 -0.0161485 0.020615 -0.0210113 -0.0069828 -0.0162235 -0.0116285 0.0113503 -0.00135795 0.00452834 -0.0114556 0.0206422 -0.000275555 -0.0101995 -0.00452854 0.00328295 0.00709536 0.012589 0.00287459 -0.00431013 -0.000798034 -0.0001412 0.0147414 -0.02496 -0.00474069 0.00497465 -0.00806522 -0.00651865 -0.010025 -0.00509234 -0.00509338 -0.00226637 -0.01149 0.00824338 0.00887664 0.0128344 
-0.0107344 0.0182052 0.0130481 -0.00475055 0.0156828 -0.00682106 -0.0122279 -0.0121471 -0.000872507 -4.08239e-05 -0.0142253 0.00074373 0.00197943 0.0102012 0.00938268 -0.00125829 -0.0188444 -0.00853259 -0.0176104 0.0141125 -0.00950272 -0.00648924 -0.00471251 -0.0163855 0.0109224 0.00560147 9.62279e-05 0.0289921 -0.0127477 -0.000709952 0.000461684 -0.00162544 0.00486538 -0.0107633 0.00150779 0.00990539 0.0153111 -0.00638749 -0.00941145 0.0128275 -0.00712514 -0.00413392 -0.0215341 -0.00534022 -0.0101031 0.00459549 0.0259772 -0.00163444 0.00302384 0.00627278 0.021544 0.00692674 0.00328743 0.00382032 0.00355796 0.00207896 0.00626622 0.0076077 0.0183347 0.00814302 -0.0106031 -0.0221628 -0.00320187 0.00272087 -0.0152219 0.00732819 -0.00847957 0.00155872 -0.00494262 -0.00290916 -0.0176792 0.0133209 0.00278794 0.0150097 0.00174874 0.00114815 -0.00138007 0.0163839 -0.0172907 -0.0142026 -0.0117782 0.0141139 -0.0302265 0.0133934 0.000492814 0.00388417 -0.00694185 -0.0287447 -0.0167563 0.00125458 -0.00833313 0.0228638 0.011649 -0.000739862 0.00918786 0.00500489 0.00509744 0.010594 -0.0220479 -0.0105717 -0.0111186 -0.00475201 -0.019405 -0.0070232 0.0215159 0.00865035 0.00346332 0.00961689 -0.00496849 -0.00518889 -0.00188286 0.0266265 0.00104689 -0.00902779 0.013038 -0.000247186 -0.00825922 -0.00722943 -0.0103474 -0.00396984 -0.00164753 0.00814397 -0.00099196 -0.00162632 -0.00756798 -0.00546365 -0.00678574 -0.00322294 -0.0258873 -0.0133986 0.00539505 -0.00853876 -0.00810408 -0.00514713 -0.0139995 -0.00934577 -0.00149665 0.00794808 -0.00957956 0.00235734 0.00218156 0.00236615 -0.00939709 -0.0143376 0.0268632 0.00617624 0.00317714 0.00242008 -0.00207883 -0.00717377 0.00251201 0.0151037 -0.0160844 0.00497213 0.00846925 0.011194 -0.000877704 0.00734819 0.00412614 0.0103697 -0.0112487 -0.00154627 -0.0166903 -0.00509545 0.0181604 -0.0136229 0.000343485 -0.0102114 -0.00538115 0.00630653 -0.0136645 0.0183403 -9.69025e-05 0.00411755 -0.00638038 0.00199883 -0.00320499 0.00772152 0.00192878 -0.00717361 0.00980793 -0.00693878 0.0214874 0.01181 -0.00736097 0.0198826 -0.00208521 0.0120468 0.013497 0.00609214 -0.00503947 0.00458728 0.00248726 -0.00628116 0.00395241 0.00412259 -0.0036062 0.00503606 0.0141096 -0.00829484 -0.000608041 -0.0223178 0.000592062 -0.00220272 0.0121045 0.00442743 -0.0189812 -0.00259659 0.0140642 0.0125643 -0.00778024 0.00170422 -0.0112767 0.00707943 -0.00173124 0.0110901 -0.00686501 -0.00832897 0.00834756 0.0102975 -0.0126034 -0.00224833 0.000818217 0.00799973 0.0051749 0.00274295 -0.00788878 -0.0264459 -0.00192258 0.0116289 0.0129635 0.0025906 0.0028564 0.00230248 -6.2773e-05 0.00530826 0.00559963 0.00138575 -0.00483817 -0.0132149 
-0.0050284 0.0023832 -0.00863576 0.00215493 0.00317866 0.0222865 0.012092 0.000920539 -0.000198655 -0.00691781 0.00733706 -0.00501186 -0.0156862 -0.0111905 -0.000799176 -0.00521833 -0.0040329 -0.00837874 0.000248843 -0.0112676 -0.00243004 -0.00801505 -0.00180786 0.00460212 0.00374343 -0.00856147 -0.00500512 0.0100601 -0.0176172 0.000542281 0.0124486 0.00477526 0.00251928 -0.00976585 0.00873858 0.0135493 0.0010515 0.00332931 0.000298062 0.00409125 0.0059658 0.00667572 0.00842565 -0.0129144 -0.002005 -0.00124425 -0.0163949 -0.00111121 
