-0.00333926 0.0396313 -0.00940531 0.0142406 0.000803504 -0.015591 0.00360828 0.00491952 -0.0150121 0.0121692 0.00244829 -0.0139028 -0.0109919 0.0129195 0.00609133 0.0183958 -0.00205897 0.00659262 -0.0098698 -0.016155 -0.00533025 0.00153696 0.00218955 0.0078498 0.00424872 0.00183245 0.0056631 0.00733753 0.00902821 0.00215628 -0.0154764 -0.00120419 0.0115852 -0.00702433 0.0087688 0.0075117 0.00252278 0.0185303 -0.0101863 -0.00616667 -0.0016119 0.00752932 0.00026417 0.000627674 0.022369 -0.0130029 -0.0124378 0.00823119 -0.00342383 0.00198092 0.00631121 0.00578076 0.011585 0.00032203 -0.0096881 -0.01407 0.0124039 -0.00691678 -0.0124938 0.00487798 0.00789004 0.0168149 0.000489728 -0.00923084 0.000703979 -0.0122069 -0.00466133 -0.00501992 0.00245243 -0.00133857 -0.0177457 0.021317 -0.0237478 -0.00991092 -0.0135278 -0.00856306 0.00945877 -0.00204077 0.00111934 -0.0149615 0.0240682 0.00191611 -0.00926159 -0.00527121 0.00232907 0.00624559 0.0134935 0.00130807 -0.00201839 -0.001284 2.27936e-05 0.0144168 -0.0259086 -0.00232884 0.00554535 -0.00633812 -0.00905407 -0.00806713 -0.0058928 -0.00319601 -0.00258921 -0.0128767 0.010104 0.011745 0.0136662 
-0.00889154 0.0194521 0.0131529 -0.00522872 0.0159916 -0.00745955 -0.0121587 -0.0133523 -0.000564844 -0.00135901 -0.0134038 -0.00077689 0.00179316 0.00951026 0.009231 -0.000252493 -0.0185293 -0.00870423 -0.0178376 0.0142378 -0.00966436 -0.00592458 -0.00506276 -0.0163517 0.0100795 0.00634222 -0.000594916 0.0289457 -0.013648 -0.000948488 -0.000645375 -0.00094866 0.00447034 -0.0103853 0.00203477 0.0105003 0.013195 -0.00738558 -0.00839714 0.0132808 -0.00825542 -0.00544388 -0.0202021 -0.00362025 -0.00946547 0.00281866 0.0251466 -0.00194844 0.00364875 0.00632752 0.0223465 0.00626049 0.00393284 0.00392385 0.00460991 0.0010738 0.00703578 0.00833679 0.0193053 0.00845941 -0.00964187 -0.0215337 -0.00381528 0.0024124 -0.0149091 0.00742018 -0.00837903 0.000698844 -0.00448701 -0.0040293 -0.0167445 0.0116333 0.00334856 0.0142449 0.00154372 0.00410258 -0.00131911 0.0161617 -0.0187212 -0.0146304 -0.0130531 0.0174895 -0.029935 0.0120545 -0.0021869 0.00776715 -0.00751426 -0.0301085 -0.0202318 -0.000425881 -0.0078017 0.0224611 0.0109112 -0.000900289 0.00921845 0.00536802 0.00625662 0.0107789 -0.0221068 -0.011419 -0.00996467 -0.00535271 -0.0190831 -0.00850657 0.021066 0.00949685 0.00372039 0.00959344 -0.00511834 -0.00509141 -0.00208146 0.0270934 0.00080328 -0.00905375 0.0124062 0.000255829 -0.00865013 -0.00737359 -0.011037 -0.00413977 -0.000709589 0.00817709 -0.000598353 -0.00172302 -0.0076288 -0.00592368 -0.00592909 -0.00305714 -0.0262793 -0.0138113 0.00573568 -0.00804729 -0.00880934 -0.00594468 -0.0141985 -0.00831792 -0.000851649 0.00850528 -0.00970005 0.00246822 0.00156098 0.00241282 -0.0098375 -0.0144122 0.0264505 0.00617633 0.0031252 0.00185398 -0.00220961 -0.00715046 0.00362666 0.0153086 -0.0166386 0.00464445 0.00861103 0.0112354 -9.39982e-07 0.00698225 0.00422594 0.00920264 -0.0100306 -0.00266354 -0.0164851 -0.00647622 0.0177578 -0.0130853 0.00115299 -0.0102815 -0.00548268 0.00663009 -0.0137931 0.0176998 -0.000982136 0.00456465 -0.00688582 0.00205106 -0.00433282 0.00805253 0.00216957 -0.00705601 0.011833 -0.00561363 0.0227997 0.0114878 -0.00725143 0.0184795 -0.00204806 0.0112041 0.013265 0.00542213 -0.00512254 0.00468424 0.00111612 -0.00637394 0.00401924 0.000542095 -0.00395162 0.00385638 0.015789 -0.00737928 0.00198899 -0.0257834 -0.000123931 3.23836e-05 0.0141276 0.000939355 -0.0202501 0.000463267 0.0168534 0.014228 -0.00801773 0.00161028 -0.0112667 0.00727038 -0.00164466 0.0112056 -0.00702702 -0.00825626 0.00837143 0.0104512 -0.012892 -0.00205802 0.00094352 0.00820409 0.00527095 0.00342007 -0.00827671 -0.0216004 0.00190709 0.0111359 0.0100632 0.00088766 0.00337714 0.00215478 -0.000167561 0.00380696 0.0090064 -0.000931562 -0.00196322 -0.0102901 
-0.00854105 -0.00111719 -0.0121468 -0.00135483 -0.000324449 0.0187756 0.0085825 -0.00258529 -0.0037047 -0.0104226 0.00383081 -0.0085164 -0.0191949 -0.0147025 -0.00430536 -0.00630408 -0.00511974 -0.00946451 -0.000838385 -0.0123524 -0.00351675 -0.00910052 -0.00289329 0.00351699 0.00265981 -0.00964758 -0.00609104 0.00897527 -0.0187039 -0.000542863 0.0103511 0.00267721 0.000419981 -0.0118647 0.00663136 0.0114567 -0.00104705 0.00123318 -0.00179434 0.00199203 0.00386692 0.00457925 0.00632366 -0.0150108 -0.00410557 -0.0047519 -0.0174812 -0.00320949 
