0.407031 1.33863 -0.859696 1.84161 -0.21305 1.50133 0.776674 0.940168 -0.134186 1.51232 -0.565222 -0.191361 1.05325 -0.857686 -0.215928 0.546557 -0.977804 0.384524 1.1761 0.714712 -0.797994 0.479482 -1.06097 0.4296 0.629552 0.951223 0.346814 -0.213932 -1.07017 0.4087 -1.65436 0.551833 -0.643815 -1.18813 1.84472 1.12266 -0.0645301 0.686298 -0.805493 0.977306 -1.03763 -0.39412 -0.707944 -0.218381 0.964462 -1.6133 -0.218944 -0.82039 0.975153 -0.677256 -0.481567 -0.769863 -0.379694 0.684559 -0.728511 -0.946532 0.448654 -0.997506 -0.713685 -0.808851 -0.915073 0.887702 0.441926 -0.899911 0.0201133 -0.875925 -0.725099 -0.551953 0.404065 1.42512 -0.500022 0.68011 0.945346 -0.676703 -0.562601 -1.53758 0.572271 -0.682594 1.27711 -0.537788 0.749836 1.50013 -0.941558 -1.21193 -0.82589 -0.840316 -0.28746 -0.855191 -0.723442 0.518911 0.0791579 0.20075 -0.411359 0.568623 0.576264 -0.842353 -0.38044 -0.750557 1.4885 -0.79912 -0.203863 -0.0106675 -0.0381607 0.494953 0.73758 -0.317672 0.377645 0.682328 0.343303 0.314417 0.23638 -0.873399 0.275606 0.317676 0.365741 -0.21267 0.330081 0.0613907 0.467595 -1.21938 
2.76433 -0.805446 -1.13343 0.113005 -1.31403 0.430597 -3.78287 0.470485 1.36437 0.319893 -3.62424 2.84764 -1.66439 -1.53996 3.11927 -0.932618 -1.62372 2.79759 1.50103 0.113783 0.793887 -1.86261 2.06218 3.93057 -1.64486 -3.62373 3.83266 -2.7007 0.761964 -0.98494 2.2026 2.57336 1.7795 1.74503 -0.0744591 -2.24374 -0.991227 -2.75482 1.98823 -2.39087 1.43907 1.13168 1.68155 0.138207 1.26173 -1.4215 -0.0803533 1.20065 -1.83081 -0.950753 3.22331 0.63511 -1.86296 -1.16863 -0.0787715 1.48273 -1.30416 -1.17658 -1.39882 -2.15272 1.7698 -0.965799 0.0167932 -0.936645 -0.311291 0.408877 -0.709654 0.449174 -0.675545 0.260244 -0.724355 -0.607705 1.02984 -0.86038 0.842597 0.953292 -0.335561 0.884575 -0.206684 0.171872 0.330162 -0.980915 -0.566521 0.379843 -0.295842 -0.837973 0.595386 0.291761 0.202139 0.9465 1.68779 0.713242 1.13707 0.0580912 -0.00965554 -1.45101 -0.455285 -1.3215 0.752 -1.10795 0.354241 0.533748 -0.406955 0.150567 0.366009 -0.199533 -0.0631332 0.473937 -1.22395 -0.747062 0.965913 0.214604 -1.33936 -0.236088 -0.0894354 0.44578 -0.491385 -0.827039 -0.923691 -0.442029 1.41367 0.910007 1.43884 0.377127 -1.1632 0.279209 0.577266 0.179147 0.22808 0.29314 0.964674 0.00214312 0.17458 -0.885251 -0.0396906 -0.726555 -1.07445 -0.0403646 -0.128175 -0.692134 0.109353 0.458671 0.269124 -0.336761 -1.10689 1.03266 -0.452607 0.451971 -1.59777 -0.342922 1.17707 1.09111 -0.342064 0.394341 -1.23137 1.27573 -2.37118 1.34475 0.779773 0.639793 -1.52075 1.38504 0.137987 -1.52712 1.16194 -0.543255 -1.14816 1.12566 0.576237 0.518372 -0.113388 -1.47992 1.02582 0.974971 -1.14086 -1.41604 0.962907 -1.19109 0.282738 -0.822924 -0.79788 -0.780894 -0.938512 0.147152 -0.119942 0.985851 -0.488737 1.0691 -1.33637 0.699331 -0.429296 -1.59536 0.0076555 -0.555465 0.0684927 -0.345823 -0.105397 0.163925 0.89449 0.475395 0.847708 -0.282179 1.03629 0.389695 0.0101849 -0.456061 0.498921 1.87382 0.908634 1.14787 2.02067 0.626108 1.17379 1.02619 -1.30757 -0.838241 -0.8174 -1.16444 2.40612 -0.472427 0.612569 -0.277956 1.09074 -0.75953 1.32298 -0.926113 -1.32978 1.36536 -1.65835 -0.352532 1.76637 -0.502159 -1.60181 -0.669914 -1.29389 0.661448 -0.687504 0.244079 -0.861819 -2.28281 1.08009 1.45619 1.62136 1.11365 -0.423794 0.587018 0.275577 0.525878 -0.167457 0.43338 -0.643231 -0.566789 -0.486211 -0.611087 -0.769349 -1.30569 -0.363598 -0.829561 -1.38241 1.1044 -1.95149 -0.333244 -1.05312 0.720396 -0.346283 -0.603329 0.644698 0.801624 -1.49753 -0.294811 -0.467567 0.585689 0.319225 0.152819 0.169462 -0.824434 -0.131182 -0.858281 -0.0618602 -0.43053 0.213229 -0.003784 -0.543904 0.337345 0.215458 -0.595552 0.282016 0.300924 -0.097035 0.538504 -0.219536 0.700207 0.0707137 -0.477693 0.310003 0.260016 -0.575872 -0.0944991 -0.176671 0.224723 -0.353523 1.69463 2.22941 1.39876 0.119314 1.59394 1.34567 1.62109 -0.784548 1.12695 -0.57861 -0.404254 0.985447 0.00527668 -1.14401 -1.71665 0.232351 -1.03527 -2.6359 -0.13367 1.18578 0.0162099 -1.72749 0.445182 0.254242 -0.531623 0.402824 0.858217 -0.686233 -0.0129891 0.652445 -0.328568 0.345807 -0.222982 0.764919 -0.390977 0.747338 -0.438866 -0.79913 -0.190537 0.661075 -0.908254 1.74963 0.59318 -0.869648 0.626714 0.845975 -0.87785 -0.474959 0.235513 -1.26447 0.656144 -0.467374 -1.43517 0.909439 0.585126 -1.36542 0.92752 -0.0425933 0.662042 1.18147 0.00903702 -0.201057 0.40886 1.40099 -1.00614 0.769032 -1.05217 0.227883 -1.07817 1.27946 -0.760574 1.71559 1.06888 -0.49442 -0.232445 1.40777 -0.487864 0.41415 1.93735 -0.591944 0.605351 0.329405 -1.0207 1.40501 1.22441 -1.00591 0.745597 0.67686 -0.392198 -1.25924 0.350761 3.46772 0.477085 -1.34462 0.417176 1.30228 0.383435 0.684181 0.710101 0.84037 0.290436 1.16389 -2.10647 0.0370661 -0.423374 -1.57449 0.00739009 -2.45533 0.0429987 0.0755002 -0.0449354 -2.01709 -0.651573 -1.67331 0.859339 -0.605039 -0.252007 -1.74434 -0.820396 0.0631542 0.308915 -0.0696325 0.436567 -1.25678 2.02208 -0.482161 2.09681 0.0392364 1.37617 -0.973816 1.06475 0.834371 -1.95169 0.480378 -0.182468 -1.5409 0.413559 0.228172 0.0497779 0.478576 -1.12655 0.292706 1.22832 -1.73034 -1.05459 1.39097 -1.04161 -0.0501348 -0.11458 1.31287 0.104834 -0.150244 0.523635 -1.44816 0.747951 -0.863696 0.649775 1.39493 0.98159 -0.0719499 -1.00911 -0.14936 -1.14129 1.22457 -0.662644 -1.19234 1.27687 -0.232062 1.08936 0.577184 -0.414407 -0.266131 0.122208 -1.17509 0.00164318 0.059168 1.16873 0.335692 -0.871387 1.57435 0.527782 0.141248 0.477533 -1.8311 2.92818 -1.08407 3.06332 -0.423732 2.68549 -1.41634 1.39968 -0.736999 -2.563 0.794144 -0.793813 -1.92638 0.807952 -0.24176 -0.170085 1.04438 -0.827046 -0.113098 1.45938 -1.967 -1.45858 1.55689 -1.6241 -0.0271377 0.220266 -1.13538 -1.3341 -2.77079 -0.656921 1.12523 0.536421 -0.852642 0.645341 -0.314316 0.50051 -0.853953 -0.488228 -1.06445 1.3168 0.546109 0.822254 1.58332 0.527078 -0.425803 0.693642 -0.11633 -0.568719 -0.163653 0.540731 1.76681 -0.867296 0.658254 -0.041042 2.11817 0.513359 1.34602 0.207446 1.1454 -0.0523395 -0.381954 -0.245293 0.142775 -0.335414 -0.135421 -0.276924 0.163803 0.313085 -0.434989 -0.544753 -0.180725 -0.283999 -0.474893 -0.192395 -0.648393 -0.648948 0.0690992 0.933682 0.064528 -0.0465256 -0.514093 0.243739 -0.0961743 -0.312352 -1.33035 0.219906 0.854842 -0.437533 -2.20349 -0.925392 1.15508 -2.3219 -2.20138 -2.24541 -0.622538 -2.11843 -0.0871365 1.13026 -0.837081 1.10095 -0.0119782 0.614497 0.779707 0.201215 1.90224 1.04574 2.48231 0.680057 1.43519 -0.0898233 0.759819 -0.11144 -0.0831078 -0.992833 2.25953 0.721978 -2.25092 -1.58422 -1.72327 -0.489519 1.77395 0.4051 -0.917208 0.704302 0.383024 0.380937 -0.549312 -1.21656 -0.687529 1.51174 0.861114 1.00679 1.42713 0.825303 1.6787 1.91793 -0.431657 -1.33371 2.0189 0.603605 1.48014 -0.680973 0.861293 0.793449 1.08561 -0.253055 1.9261 -0.355232 -0.671755 -0.0411911 -1.41685 0.352263 -2.82339 0.399141 0.95662 0.0180258 -3.61876 2.07926 -0.317756 -1.85773 1.85338 -0.424017 -1.50719 1.73007 1.73 0.619479 0.406586 -1.38349 2.35301 2.79542 -1.49111 -3.57704 2.60437 -1.91406 0.520085 -0.750009 1.24283 0.110325 0.188232 0.120216 -1.69868 1.99204 -1.19219 1.81514 0.0376211 2.19318 -1.46901 1.14214 -1.2599 -2.00342 1.14619 -0.134364 -1.82108 1.14033 -0.166292 -0.177709 1.08271 -1.39493 0.0584823 1.61815 -1.83645 -1.51944 1.67531 -0.672723 -0.157172 0.00996906 0.667892 1.05365 0.479821 1.32152 0.760693 0.26539 0.738052 0.316063 0.581797 0.00894247 -0.588032 -0.128812 -1.11915 0.73415 -0.30271 -0.984883 0.634088 -0.366587 -0.575432 -0.504735 -0.703734 -1.34468 -0.571693 -0.995166 0.415757 -0.63123 -0.883405 0.293622 -0.430538 -1.08565 -1.02899 1.56058 3.42096 1.4385 0.20093 2.29502 2.51759 2.35423 -0.966995 1.58815 -0.732289 -0.0526467 0.924528 0.063035 -1.64038 -1.67987 0.357051 -1.47531 -2.87035 0.361162 0.737871 0.0675514 -1.19624 0.448579 0.389032 -0.66625 0.479501 0.576195 -2.29121 0.104593 0.77279 -0.764393 0.605267 -0.162149 -0.9678 0.96943 -0.775815 1.02243 0.940902 1.39086 -0.0678045 -0.478472 -0.284952 -0.910055 0.847283 0.344437 -0.73649 0.880072 -0.832006 -0.396919 0.352927 -0.598363 -0.685726 0.241699 -0.654091 -0.140926 0.272832 0.554423 -0.456107 -0.805805 -1.62565 0.959501 0.793691 2.58422 1.75469 -0.303012 0.638433 -0.313349 1.33507 -0.611098 -0.106719 -0.654952 0.9462 2.20007 -0.0523484 -0.957729 -1.05373 -0.174415 -0.583059 -1.1029 -0.45484 -0.824286 -0.491341 -0.0819282 -1.29196 -0.176097 0.169662 0.93235 -0.942782 -2.00755 0.0885001 0.172686 0.970403 -0.283865 -1.99802 2.49874 -1.02848 2.4276 -0.208729 2.66524 -1.67472 1.43314 -1.63264 -2.05451 0.937786 0.0108548 -1.81267 0.94459 -0.921371 0.161412 0.979517 -1.10481 -0.73474 1.54986 -1.71973 -1.6641 1.58783 -1.38279 -1.02849 0.346316 -0.470846 1.47795 0.362483 3.64505 1.93505 -0.301137 0.828499 -0.29358 1.17498 -0.944283 -0.588772 -0.724224 1.43611 1.08478 -0.198765 -1.33895 -0.742623 -0.33329 -0.208787 -0.649251 -0.617765 -1.86224 -0.192639 -0.187897 -0.969303 -0.472139 -0.364621 0.797669 -0.420157 -1.86749 -0.611267 -0.307251 0.0892808 -3.20517 -2.01053 0.469134 -1.13455 0.415247 0.655715 0.870301 0.610612 -2.24173 -0.470225 -1.65581 0.837989 0.872855 -1.71722 0.963999 0.253168 -0.293033 0.603314 0.654611 0.323846 -0.811801 -1.52549 0.620902 -0.740047 1.73704 -0.181815 -0.0664863 0.441626 0.769111 -0.205414 0.590302 -0.729217 -0.049168 -0.763149 0.497542 -1.03446 0.187418 -1.02128 -0.0572045 0.586512 -0.63723 -0.786879 0.289739 -1.52053 0.510623 -0.415221 0.83177 1.55685 0.0760782 -0.957223 0.401669 -1.25528 -0.504304 0.63146 -1.2654 0.957322 -0.203848 
-1.44349 0.337894 -8.61715 -5.08116 -6.20808 1.97747 -5.11384 0.151693 13.2472 -5.80785 14.783 2.90592 2.17812 1.35169 2.10246 -6.73036 -0.2617 -4.3435 -10.4187 -9.81252 -5.85055 2.34387 -0.128614 15.4178 16.7618 -0.444177 12.4525 0.689947 12.5739 -7.16645 1.8089 11.8316 -6.88197 10.9528 18.7648 -2.72256 -15.2563 8.53348 -0.328336 7.27975 0.479186 -4.2201 -3.90988 4.37849 -5.33244 2.7376 -6.41246 -10.6758 17.879 -6.78179 -8.68379 -2.97747 0.834142 0.0261594 -2.32584 3.32736 2.88653 5.76881 -2.67129 1.78758 10.5388 -2.18036 1.35107 -3.19487 0.879463 9.51053 -2.31165 3.55678 -0.10794 -6.08172 -0.256794 -16.0385 -8.49611 0.626206 6.53036 4.57476 12.9694 -1.00554 -4.989 -9.99792 -1.07885 10.3475 10.7516 -0.134786 -3.07855 5.20589 0.244613 12.1935 -0.422149 -0.315839 -7.99643 -6.53723 -8.07933 
