0.000994715 0.0443045 -0.0058916 0.0161072 0.00318966 -0.012186 0.00285017 0.00382231 -0.015092 0.00876012 -0.000609372 -0.0169477 -0.00704922 0.0168312 0.0129669 0.0236257 0.00323996 0.0106213 -0.00221884 -0.00879089 -0.00443639 -0.00378813 -0.00299574 0.00536102 0.00134253 -0.00102627 0.00160831 0.00252535 0.00410498 -0.00241793 -0.0116988 0.00242376 0.0119665 -0.0116518 0.00380751 0.00461373 -0.00195428 0.01404 -0.00754761 -0.00588828 -0.00102294 0.00603715 0.000676379 0.000888587 0.0172594 -0.00660262 0.0143613 -0.00488871 -0.00384278 0.0132855 0.0122031 0.0171279 -0.00662767 -0.0130697 -0.0181656 0.0142073 -0.0131873 -0.0140395 0.00809838 0.00437883 
0.00201598 -0.00671928 0.000638653 -0.0121605 -0.00455298 -0.00412347 0.00541278 -0.00224342 -0.0191318 0.0183262 -0.0199709 -0.0091059 -0.017045 -0.00806708 0.010419 0.000604131 0.00421257 -0.0115506 0.0205455 0.00193956 -0.0095215 -0.00219813 0.00296849 0.00714947 0.012551 0.00123861 -0.00205008 -0.000340586 -0.000331727 0.0144435 -0.0233433 0.000258053 0.00160116 -0.01034 -0.000882549 -0.00442805 -0.00127698 -0.00586962 -0.00675731 -0.0166454 0.0131627 0.00452626 0.00833601 -0.0108921 -0.00444446 0.0192384 0.0108649 -0.00504895 0.0153726 -0.00854017 -0.014902 -0.0141517 -0.000397694 -0.000177784 -0.0126241 -0.00168145 0.00336524 0.0110513 0.00899968 -0.00229184 -0.01853 -0.00755231 -0.0185373 0.0134862 -0.00764059 -0.00433498 -0.00392947 -0.0166905 0.00940813 0.0044163 0.000752387 0.0280421 -0.0142331 1.00751e-05 0.00248851 0.000488137 0.00971572 -0.0132282 0.000314914 0.0147352 0.0202029 -0.00422925 -0.00972981 0.00851023 -0.011554 -0.000654214 -0.0250436 -0.00941009 -0.0073254 0.00812057 0.0267301 0.00378009 3.51489e-05 0.00412142 0.0276274 0.0130311 0.00809735 0.00253077 -0.000447463 -0.00361285 0.0124261 0.00311512 0.013463 0.0119051 -0.00490511 -0.0218627 -0.00320817 0.00203675 -0.0153322 0.00820459 -0.00740883 0.0013499 -0.00482613 -0.00440254 -0.0177599 0.0121554 0.002664 0.0138082 0.00193381 0.00148605 -0.00131236 0.0126371 -0.0177508 -0.0152913 -0.0123657 0.0125558 -0.0304046 0.0129608 0.0010176 0.00650684 -0.0091521 -0.026579 -0.0161087 0.000739205 -0.0100096 0.0232069 0.0141788 -0.00283469 0.00760734 0.00998396 0.0100096 0.0134686 -0.0226856 -0.0135964 -0.0140568 -0.00176736 -0.021421 -0.0106724 0.0235759 0.0126732 0.00512794 0.0145505 -0.00821863 -0.0071135 0.00354322 0.0323177 0.00481015 -0.010142 0.00858428 -0.00495736 -0.00374221 -0.0114367 -0.0150325 -0.000491946 0.00328794 0.00939465 0.00351713 -0.00377627 -0.00897655 -0.000926156 -0.00158868 0.000130839 -0.0271727 -0.0165462 0.00119452 -0.00409255 -0.0118768 -0.00864302 -0.0114134 -0.0044989 -0.00154012 0.00419555 -0.00739381 0.00371665 -0.00299607 -0.00280192 -0.0128689 -0.014045 0.0298814 0.00999483 -0.00104481 0.00537401 0.00172483 -0.0096112 -0.00133109 0.016427 -0.0143836 0.00387758 0.0079081 0.0144531 0.00244858 0.0086736 0.00364717 0.00798298 -0.0128275 -0.000573886 -0.0179438 -0.00722786 0.0191902 -0.0106858 0.00112353 -0.0130443 -0.00430497 0.00709904 -0.0171295 0.0142936 -0.00278958 0.00453818 -0.00523869 0.00473705 -0.0069178 0.00988292 0.00410371 -0.0085836 0.00830952 0.0271726 0.0112167 -0.0010406 0.0152083 0.00138412 0.0176055 0.0196081 0.00765422 -0.00828982 0.0112322 0.00774863 0.000737266 -0.00115297 0.0106346 -0.00854559 
0.0207284 -0.00125381 0.00604345 -0.0165752 0.00551151 0.00479577 0.0171482 0.00915105 -0.0132334 0.00352575 0.0192759 0.0183931 -0.002025 0.00752347 -0.00530276 0.0130975 0.00424959 0.0170398 -0.000950089 -0.002409 0.0142528 0.016249 -0.00694084 0.00388572 0.00671644 0.0139112 0.0111313 -0.0075366 0.0116141 0.000163735 -0.0198059 0.00375825 0.0187109 0.0196293 0.00970016 0.0116358 0.0109027 0.00750989 0.0125646 0.0144213 0.00742536 8.46182e-06 -0.0043165 -0.00217765 0.00117814 -0.00244433 0.00836549 0.00939679 
