-1.79013 2.59292 1.00659 0.828764 -0.159316 -0.170773 1.26361 -0.726664 0.44863 -0.363251 2.40562 -0.775837 1.97788 -1.21951 -0.187919 1.90601 -0.875696 1.13625 1.04439 0.540926 -1.28631 0.84745 -2.84273 -0.873934 -0.210514 1.14578 0.721767 -0.787313 0.451027 -0.15019 -0.888302 -0.795921 1.13234 1.16955 -0.291637 -0.274772 1.19796 -1.73647 -0.437947 -1.00535 -0.893908 0.157923 -0.841182 2.01878 1.26675 1.22226 0.583786 -0.0360854 -0.632012 0.464509 -0.0996141 0.1974 -1.30083 -0.185862 -0.361171 1.21513 0.405851 -0.620234 0.889375 0.864296 
-0.609176 0.678868 -1.9217 -0.0823567 0.214038 -0.0452921 0.258561 0.376824 1.02117 -0.425408 -0.000954554 0.261916 -0.0962921 -0.145011 0.378584 0.613755 -0.485077 -0.459996 -0.639497 1.48477 1.28834 0.0235309 -1.05633 0.232964 0.295611 -2.04087 -0.643917 3.39103 -2.03015 0.632014 -0.207108 -2.50212 -1.25224 -0.7664 0.336699 -0.962612 -1.21933 0.913513 2.29837 -0.516298 0.705891 1.05757 4.68443 1.11143 0.36439 -1.45005 -1.47139 -1.32209 0.420383 1.15666 -1.43551 -0.47967 1.24142 1.33786 -3.143 3.14032 2.22117 0.515978 2.39961 -0.0996833 -1.0895 -2.7649 -2.51608 0.0324767 -5.44027 -1.61802 -2.4942 1.50284 0.682863 1.2591 0.404693 -0.430225 1.55941 1.0645 0.282325 2.69457 0.897987 -0.680554 -1.13755 0.973607 0.81331 0.462159 -2.44062 -1.19124 0.494427 -1.8522 0.0092632 -1.15991 -1.37501 -1.36729 1.40484 1.05757 0.652343 -1.46393 -0.269266 -1.59425 -0.681656 -1.63829 0.607782 -0.997648 -1.25815 0.628713 1.10898 -0.933118 -1.66792 -0.613153 -1.93683 -2.41802 0.0833001 2.22605 -1.10431 -1.27176 0.995801 0.540665 -1.22872 2.04332 3.34391 2.29088 3.12418 0.882681 -1.90354 -2.54211 -3.30165 0.534586 0.193782 -2.7251 -1.1784 2.44919 3.20028 -0.104494 1.19224 -0.942858 -0.19005 1.66469 2.25234 0.549524 -3.36575 -1.59085 -1.62451 1.71748 2.21737 -3.20863 -0.66035 3.83443 0.899198 -0.657189 -0.630601 3.23858 -0.873046 1.96541 0.804189 1.27973 4.58228 0.968884 -1.73141 -0.273643 -0.251323 -0.738338 -4.05332 0.861474 -0.5766 -0.480592 -1.61063 -0.44823 -1.34056 0.0516434 0.471347 2.9925 -0.393823 0.357457 1.824 0.412329 -0.346293 -0.548371 0.773272 -2.42442 -0.911682 -1.25444 -1.16291 -0.614848 1.36073 -1.91611 -1.30604 -1.03664 0.3757 0.450357 -1.03245 -1.30738 0.458492 0.204474 -1.54148 0.926991 2.17436 -0.698583 -0.624943 0.128422 0.52391 0.697179 1.08449 -1.28912 -1.96135 0.977362 -0.0175763 -1.41534 -0.213837 -1.58434 0.65576 -0.627708 -0.186109 -3.08328 1.97027 -1.73978 -0.826008 -1.65042 2.01931 1.87415 -2.01691 -1.87046 2.11654 0.132497 0.708578 -0.171109 2.90068 -0.130204 0.686053 -0.685985 -0.122164 -1.52299 1.12244 -1.64766 0.0701071 1.04572 0.675543 -0.942054 -1.96233 0.441932 -0.677014 0.672171 -0.024425 0.275721 
15.2715 23.0583 2.64149 -8.99719 -25.3766 2.37954 12.34 8.50184 -26.7396 -0.204576 -7.65213 39.0987 1.00265 -3.66656 -3.1205 -7.52557 -2.702 -25.5758 -21.9922 -0.104808 23.9701 16.0852 -22.4275 0.312903 0.0379439 11.4525 2.63485 15.0593 7.75188 6.69281 -20.6159 5.02437 3.91594 -6.10684 0.079262 4.35533 -1.14797 6.4477 -0.535302 45.3441 -9.44475 -4.77459 15.9358 -26.7163 23.3853 -10.8113 -10.9173 -20.6745 
